{"type":"NeuralNetwork","sizes":[33,3,1],"layers":[{"weights":[],"biases":[]},{"weights":[[16.230798721313477,13.93558120727539,16.637561798095703,16.191926956176758,14.119808197021484,2.0365841388702393,12.210616111755371,23.91420555114746,19.165559768676758,22.623306274414062,-2.1017494201660156,14.270882606506348,3.244023084640503,4.251340389251709,9.279693603515625,5.209823131561279,5.272575378417969,3.7768843173980713,3.5797410011291504,5.382084846496582,4.8146281242370605,10.250030517578125,6.206711292266846,4.319085597991943,18.640323638916016,-5.930665016174316,18.889902114868164,19.025676727294922,17.93813705444336,5.437170505523682,-0.21330854296684265,4.757787227630615,-137.1793670654297],[0.5717609524726868,-10.255481719970703,1.4813109636306763,9.525195121765137,-10.593437194824219,-10.442084312438965,-13.61866569519043,-12.624441146850586,0.14360180497169495,6.819618225097656,-9.541059494018555,-4.035495281219482,0.7531808018684387,-5.996140480041504,-2.5674028396606445,9.876690864562988,1.38739812374115,-3.580357551574707,-5.591280460357666,4.925163745880127,0.8546750545501709,2.742255687713623,-8.566047668457031,2.4997518062591553,-13.347471237182617,-6.283974647521973,-4.833663463592529,12.007301330566406,-11.043986320495605,-0.3305782973766327,6.325928688049316,-1.4997159242630005,32.31626892089844],[-17.220029830932617,-17.341045379638672,-17.23578453063965,-17.401817321777344,-16.410009384155273,-17.50607681274414,-21.30890655517578,-27.856889724731445,-21.472801208496094,-33.390682220458984,-10.785385131835938,-10.665542602539062,-4.81464958190918,-4.134504318237305,-11.0108003616333,-15.363908767700195,-0.4102887809276581,-4.745762825012207,-4.3085761070251465,-18.33388328552246,-4.132412433624268,-10.54169750213623,1.0382628440856934,-5.374359130859375,-18.27450180053711,-19.005516052246094,-4.754583835601807,0.3141164183616638,-17.701261520385742,-6.177102565765381,-18.164344787597656,-18.565231323242188,162.39878845214844]],"biases":[70.83977508544922,-16.621057510375977,-92.92760467529297]},{"weights":[[2.3321826457977295,-1.071696400642395,-1.9609606266021729]],"biases":[-0.18935458362102509]}],"inputLookup":null,"inputLookupLength":0,"outputLookup":null,"outputLookupLength":0,"options":{"inputSize":0,"outputSize":0,"binaryThresh":0.5,"hiddenLayers":[3]},"trainOpts":{"activation":"sigmoid","iterations":100000,"errorThresh":0.001,"log":true,"logPeriod":1000,"leakyReluAlpha":0.01,"learningRate":0.3,"momentum":0.1,"callbackPeriod":10,"timeout":"Infinity","beta1":0.9,"beta2":0.999,"epsilon":1e-8}}